<?xml version="1.0"?>
<opencv_storage>
<my_svm type_id="opencv-ml-svm">
  <svm_type>C_SVC</svm_type>
  <kernel><type>LINEAR</type></kernel>
  <C>1.0000000000000000e-002</C>
  <term_criteria><epsilon>1.0000000116860974e-007</epsilon>
    <iterations>2147483647</iterations></term_criteria>
  <var_all>3780</var_all>
  <var_count>3780</var_count>
  <class_count>2</class_count>
  <class_labels type_id="opencv-matrix">
    <rows>1</rows>
    <cols>2</cols>
    <dt>i</dt>
    <data>
      -1 1</data></class_labels>
  <sv_total>1</sv_total>
  <support_vectors>
    <_>
      -4.49241549e-002 5.26820272e-002 6.84103966e-002 -5.90728521e-002
      -6.00398220e-002 -2.64498964e-002 1.51878623e-002 1.69826858e-002
      -8.21047276e-002 -7.79201537e-002 4.34049591e-003 6.48637563e-002
      -2.79937219e-002 -4.77719456e-002 -8.71071741e-002 1.25881471e-002
      9.11143899e-004 -6.00174479e-002 -4.12878320e-002 5.10199666e-002
      4.18136269e-002 -8.43687430e-002 -2.91896630e-002 -2.59539094e-002
      3.43684740e-002 1.31475106e-002 -4.40692939e-002 -6.88225031e-002
      1.30211096e-002 6.58973008e-002 -8.48482847e-002 -4.08711508e-002
      -1.15108445e-001 4.77890298e-003 -6.86238782e-005 -6.37365282e-002
      -4.13369536e-002 9.98903811e-003 2.12060641e-002 -1.01588843e-002
      -1.71830170e-002 -6.86092004e-002 3.45319137e-002 2.42873635e-002
      -5.88758811e-002 -3.85259427e-002 -2.43771523e-002
      -1.90816280e-002 -4.20198850e-002 -2.68845093e-002
      -5.31934686e-002 2.55354065e-002 -3.25300284e-002 -5.48051931e-002
      -5.41910380e-002 6.27211249e-003 3.89932357e-002 -3.63651365e-002
      -2.39888951e-002 -5.72666638e-002 3.76021154e-002 2.07065176e-002
      -5.17355874e-002 -6.42789081e-002 -5.89581206e-003 3.27530457e-003
      -7.19427839e-002 -2.63557192e-002 -3.94719392e-002 4.93219793e-002
      -1.49561800e-002 -3.45818065e-002 -3.68389376e-002
      -4.05205935e-002 -2.62348484e-002 -3.90029401e-002
      -1.51547920e-002 -3.87068130e-002 -4.88367723e-003
      -2.46005096e-002 -1.71603523e-002 -4.66078371e-002
      -4.21633795e-002 -3.67663428e-002 -3.83544378e-002 1.37512870e-002
      -3.90742300e-003 -1.40853999e-002 -3.05119567e-002
      -4.28238884e-002 1.49549553e-002 -2.38890983e-002 -3.16492729e-002
      -5.30456118e-002 -1.82626918e-002 -1.20429341e-002
      -3.70630040e-003 -9.04227048e-003 1.65266264e-003 1.46771166e-002
      7.45817414e-003 1.83268860e-002 -1.73399951e-002 2.06672633e-003
      -5.96788712e-003 -2.51977239e-002 -1.49837406e-002
      -2.07268773e-003 -2.89625712e-002 -6.37896508e-002
      -7.84891564e-003 -3.00551057e-002 4.00844477e-002 3.72933038e-002
      -6.48551248e-003 -2.00679842e-002 -1.09824520e-002 1.43135143e-002
      -1.96592193e-002 3.08205523e-002 -8.55088292e-004 3.19857225e-002
      -3.53745036e-002 1.53975999e-002 -2.11829953e-002 1.26383789e-002
      -4.35517542e-003 -3.60209905e-002 1.79203600e-002 -3.47530679e-003
      2.68320106e-002 -2.61059939e-003 -3.30761187e-002 -6.10411242e-002
      2.22999626e-003 -7.60580739e-003 -5.54704852e-003 4.68274690e-002
      -1.08893495e-003 1.26759969e-002 6.45840028e-003 1.62559804e-002
      -2.01251432e-002 2.68295128e-002 1.37801040e-002 -2.85252053e-002
      4.94177788e-002 -6.84730429e-003 -2.58875191e-002 -5.05637899e-002
      1.55103244e-002 -6.12288304e-002 1.73018477e-003 1.32184839e-002
      8.11492559e-003 8.35004970e-002 3.63641270e-002 -4.57409909e-003
      1.82509273e-002 6.13512695e-002 -4.51641008e-002 1.46648418e-002
      9.74673685e-003 -2.65710261e-002 4.93676998e-002 5.49666991e-004
      -2.40015518e-002 -4.38623279e-002 -1.93812996e-002
      -7.54000917e-002 5.95339248e-003 3.14660408e-002 3.40369740e-003
      7.55735710e-002 3.39804254e-002 -1.46498554e-003 -3.25001292e-002
      1.70432739e-002 -4.93970588e-002 9.00964253e-003 1.61708798e-002
      9.89237521e-003 6.17053658e-002 -4.11555618e-002 -4.24377732e-002
      -1.33030126e-002 4.46997769e-002 -6.99274316e-002 -1.47170862e-002
      4.31939028e-002 4.66201454e-002 1.08904488e-001 3.72275002e-002
      5.89220002e-002 6.73348382e-002 8.75054672e-002 5.03232749e-003
      1.11275502e-002 -2.84546372e-002 -4.04985100e-002 5.94161749e-002
      -7.59279430e-002 -8.05307180e-002 -5.90228774e-002 2.23276224e-002
      -7.43646994e-002 5.33248996e-003 -7.19222007e-004 -4.66381237e-002
      6.87311590e-002 -4.16952595e-002 -1.20026506e-002 1.65839754e-002
      6.71012476e-002 2.02638227e-002 3.08761541e-002 -2.14916319e-002
      2.38834508e-002 5.36184981e-002 -4.71672192e-002 7.65688438e-003
      9.90611129e-003 2.75952891e-002 -4.70156260e-002 -4.40469384e-002
      6.03365935e-002 4.07188050e-002 7.29406029e-002 6.77805813e-003
      7.04019377e-003 3.34005915e-002 7.48081356e-002 -2.30257474e-002
      -9.57055576e-003 -9.78619233e-003 -3.52134891e-002
      -1.01462696e-002 -7.49074742e-002 -4.55910973e-002
      -1.36465002e-002 2.09183358e-002 -3.31600606e-002 6.25078101e-003
      4.10696976e-002 2.35184580e-002 2.18169447e-002 1.24457581e-002
      -1.17388940e-004 4.52488102e-003 7.97350034e-002 5.04400069e-003
      1.60876028e-002 1.02452217e-002 -1.93225890e-002 1.90278273e-002
      -2.72530578e-002 -1.54268108e-002 -2.90477443e-002 5.00520505e-002
      -4.94129658e-002 -2.46766824e-002 2.04851236e-002 -2.38716765e-003
      5.94984479e-002 3.33877280e-002 2.71338075e-002 -8.19098484e-003
      5.35988957e-002 -4.34276741e-003 3.15987915e-002 6.45729527e-003
      -3.41562890e-002 -2.09361184e-002 -5.93486317e-002 1.30126951e-002
      -3.88388969e-002 8.02109297e-003 -4.33660224e-002 -1.16379876e-002
      1.72951713e-003 -8.28264747e-003 1.28420349e-002 -9.99574456e-003
      5.55047058e-002 -5.62568242e-003 2.55911192e-003 -4.15868312e-003
      -1.17107574e-002 3.31055224e-002 -2.47119125e-002 2.08557099e-002
      -1.40722450e-002 2.06073765e-002 -1.12060197e-002 1.60746407e-002
      -4.28961292e-002 1.16938353e-002 4.26962264e-002 3.34672295e-002
      3.63189131e-002 -5.08542955e-002 3.78931649e-002 1.41274687e-002
      4.70989272e-002 -3.89653561e-003 2.56302468e-002 -2.20539812e-002
      -8.89205839e-003 -1.14688855e-002 -1.83557048e-002 2.51603909e-002
      -3.55419777e-002 -1.49266655e-002 -5.85117899e-002
      -1.50542920e-002 4.11316752e-002 3.07753420e-004 -1.48094753e-002
      -4.16126661e-002 3.99974175e-002 -2.86486209e-003 4.41182740e-002
      -1.49818333e-002 4.84357327e-002 3.34249400e-002 4.14749645e-002
      4.20449078e-002 -3.51664275e-002 2.39316262e-002 3.84148763e-004
      3.14576030e-002 -9.66666825e-003 -1.70881394e-002 8.26299074e-004
      5.84290102e-002 9.27877948e-002 3.70865837e-002 5.22536263e-002
      -2.03027390e-002 4.47997861e-002 -2.18496900e-002 9.82655492e-003
      1.32143470e-002 1.91321527e-003 -1.36280442e-002 -6.73664957e-002
      1.54066682e-002 -7.59235304e-003 2.63066124e-003 -2.37978734e-002
      1.21820420e-002 1.73140075e-002 1.81250125e-002 6.28568679e-002
      -4.73801605e-003 6.81558698e-002 1.15166511e-002 1.34398434e-002
      -1.55158211e-002 6.07021328e-004 2.39890553e-002 3.96706760e-002
      6.49501160e-002 -2.55924445e-002 1.52734136e-002 -2.60115750e-002
      5.67559153e-002 -3.84859517e-002 -2.11344231e-002 1.01428032e-002
      3.44267786e-002 5.18866591e-002 -4.44613546e-002 -1.07909681e-003
      -1.07029462e-002 6.84146434e-002 -2.05356255e-002 -1.31024392e-002
      2.77284496e-002 1.58646598e-003 3.23097408e-002 -4.93158884e-002
      1.32930903e-002 -3.74804139e-002 3.60672399e-002 -2.49188505e-002
      2.02865973e-002 3.41225229e-002 -1.50208771e-002 6.41447539e-003
      -5.35153039e-002 1.69521663e-002 -1.87560804e-002 7.15888068e-002
      -1.51296305e-002 3.81861776e-002 -5.56306494e-003 5.09412680e-003
      1.72958616e-002 -3.32441889e-002 -3.47509645e-002 -3.38819362e-002
      6.69511780e-002 -2.86648865e-003 -1.30941789e-003 8.48648790e-003
      2.37076380e-003 4.40545715e-002 1.87599510e-002 6.50005192e-002
      2.33539045e-002 8.66123438e-002 2.67504435e-002 2.66437083e-002
      -2.58632447e-003 -4.07262370e-002 -9.98533890e-003
      -1.65301189e-002 -5.99132199e-003 -5.32372408e-002 7.24465633e-003
      2.72099562e-002 1.74283590e-002 3.97423878e-002 3.28909643e-002
      4.14864607e-002 1.79312774e-003 3.14154848e-002 -1.05310855e-002
      2.05677301e-002 3.86714712e-002 3.76027040e-002 8.98355059e-003
      -3.19755450e-002 -7.33241439e-003 -5.09385020e-002 4.03805077e-002
      6.42007729e-003 4.33418676e-002 -1.02762906e-002 1.92694440e-002
      5.07127084e-002 2.59646233e-002 1.79666746e-002 2.03048866e-002
      2.37943828e-002 5.82729615e-002 4.23631817e-002 -2.52146535e-002
      1.73562709e-002 -1.10634649e-003 -2.34172381e-002 -2.18576323e-002
      -1.01554133e-001 -5.39988745e-003 -6.09271079e-002
      -2.78196558e-002 -7.05722794e-002 1.20643815e-002 2.26363353e-002
      -1.24657955e-002 5.32378675e-003 -1.67807862e-002 -1.66017935e-002
      -3.44917062e-003 -1.01106167e-002 -4.90903743e-002
      -1.69807090e-003 -7.71866599e-003 -6.51225373e-002
      -8.37222636e-002 -4.93271053e-002 -2.52939202e-002 4.51950096e-002
      1.31281437e-002 -6.52177632e-002 -1.82281751e-002 -1.01760775e-002
      3.79543239e-003 7.13774469e-003 -4.96148458e-003 -3.87878492e-002
      1.35599924e-002 2.19451897e-002 2.87191216e-002 2.95734741e-002
      8.06913152e-003 -5.96788079e-002 -4.27118018e-002 1.21374084e-002
      -3.86399738e-002 -1.80667453e-002 -3.87193705e-003
      -6.47584498e-002 -1.13052046e-002 2.37068161e-002 1.49092516e-002
      2.27848254e-002 2.72649638e-002 -2.85698120e-002 -1.17577445e-002
      3.27788144e-002 3.31915095e-002 3.02551314e-002 -7.75517672e-002
      2.69967690e-002 5.41012399e-002 -3.33914161e-002 2.88523501e-003
      -3.40076312e-002 -8.27931799e-003 2.62991060e-002 -3.54500748e-002
      -4.51221168e-002 6.93842620e-002 4.48895618e-002 -3.00410436e-003
      1.75647028e-002 1.67300701e-002 7.45995017e-003 4.56042625e-002
      -4.15516123e-002 -3.09274569e-002 2.44712345e-002 3.32444087e-002
      -3.33291106e-002 1.00131566e-002 -3.97142284e-002 1.11055383e-002
      2.07296778e-002 -2.90844012e-002 -3.20948064e-002 4.14895266e-002
      2.17765756e-002 7.81140709e-003 1.42651293e-002 1.04041006e-002
      4.63015120e-003 1.69862453e-002 -5.56231588e-002 -4.55531180e-002
      4.08238806e-002 1.45565942e-002 -6.66266307e-002 -2.45269928e-002
      -3.35410386e-002 2.14001164e-002 1.87770110e-002 -2.67757922e-002
      -1.24829836e-001 -2.24439446e-002 2.87228618e-002 -5.89820035e-002
      -3.71016264e-002 -7.51736239e-002 -1.36791226e-002
      -1.06002875e-002 -7.94131085e-002 -7.39764236e-003 5.61007038e-002
      3.47576179e-002 -5.79612367e-002 -3.61534841e-002 -2.07077060e-002
      2.67241504e-002 3.31793167e-002 2.35757884e-002 -5.62440418e-002
      8.17986578e-003 2.68201251e-002 -1.61702055e-002 -4.32959478e-003
      -1.36935022e-002 -1.75525378e-002 -9.32021160e-003
      -7.08431378e-002 -1.16237484e-001 -8.34909920e-003 4.73671779e-002
      -1.61636695e-002 -3.51836719e-002 -1.95341110e-002 5.60110733e-002
      2.99114324e-002 -6.05201982e-002 -1.13750271e-001 -9.29894485e-003
      3.60539183e-002 1.32181263e-002 -3.65537331e-002 1.81076545e-002
      3.20075266e-002 -1.54155318e-003 -4.83083799e-002 -2.76484229e-002
      7.56632583e-003 7.86276907e-003 -1.22138411e-002 -6.03037700e-002
      -4.69941236e-002 3.77434418e-002 6.63947761e-002 -3.00349798e-002
      -7.06907958e-002 2.74423882e-002 4.62686084e-002 -2.28313985e-003
      -3.96108180e-002 -2.72139944e-002 6.63565025e-002 2.38173604e-002
      -3.72561961e-002 -3.77858132e-002 1.41287353e-002 1.61840506e-002
      -7.14466302e-003 -4.30924036e-002 1.76444165e-002 -3.92559310e-003
      -6.16234681e-003 -3.98858041e-002 -3.33554042e-003
      -2.36616167e-003 2.80712768e-002 9.84911225e-004 -2.47337520e-002
      -3.27452049e-002 -5.75930066e-002 -5.63963316e-002
      -3.16895023e-002 -1.92675777e-002 7.33597800e-002 5.01207113e-002
      9.33016371e-003 -3.50417607e-002 -7.74957007e-003 1.28987161e-002
      -4.17760685e-002 -5.05551472e-002 1.12828296e-002 2.05691196e-002
      2.56938934e-002 -3.18850763e-002 -3.96834500e-002 -2.04965807e-002
      -4.73109260e-002 -1.04790941e-001 -3.88769060e-002 1.25482688e-002
      -4.18705046e-002 4.10884731e-002 4.43223417e-002 2.94545642e-003
      2.79086904e-004 -3.68962400e-002 -5.74188903e-002 6.07729191e-003
      -1.72714051e-002 -5.26305586e-002 4.43019532e-002 2.34495774e-002
      -6.68296404e-003 5.98305138e-003 1.99004374e-002 -1.31298497e-003
      5.22815771e-002 2.40268074e-002 -6.82222843e-002 -8.17576721e-002
      -3.75653505e-002 -2.06417665e-002 -3.69016943e-003
      -2.92791892e-002 -5.89136519e-002 2.03352068e-002 -3.19911391e-002
      -1.56509250e-001 -7.60821328e-002 7.43673882e-003 3.02384961e-002
      2.29937676e-002 2.43289080e-002 3.43982093e-002 5.79040349e-002
      -7.99652711e-002 -9.26684663e-002 6.16176501e-002 2.88178939e-002
      -4.50990759e-002 -1.50047895e-002 7.76749942e-003 -1.05430735e-002
      1.61224250e-002 -7.40995407e-002 -6.72361329e-002 1.26338586e-001
      5.90709783e-002 -3.60334143e-002 -4.02806289e-002 2.65138168e-002
      -1.98409092e-002 2.25263070e-002 -8.52689967e-002 -1.81224585e-001
      2.72135977e-002 2.05444731e-002 3.26192752e-002 9.41664632e-003
      2.61366032e-002 -4.79947776e-003 6.87454045e-002 -5.89850396e-002
      -5.81160150e-002 1.08871378e-001 4.09150943e-002 -3.33929609e-004
      2.95691937e-003 2.22776029e-002 1.38293821e-002 5.52572310e-002
      -8.14979300e-002 -1.05600461e-001 6.11404069e-002 4.60341852e-003
      -8.69293362e-002 -6.35561571e-002 -2.46269014e-002
      -6.03979118e-002 2.04449962e-003 -1.79434493e-002 -5.35951443e-002
      3.99364792e-002 -2.54861061e-002 -3.87183167e-002 3.12622935e-002
      4.46267277e-002 -3.21711786e-002 2.39898171e-002 -2.68158522e-002
      -9.07498449e-002 3.63636725e-002 3.37614566e-002 -2.58807391e-002
      -4.77907248e-002 -5.79976775e-002 -1.38432477e-002 7.42559731e-002
      3.02497484e-002 -6.10862412e-002 1.31908106e-002 -4.09254804e-003
      -1.84273906e-003 1.91876222e-003 -2.41907407e-002 -1.36107923e-002
      8.32708701e-002 -1.56517494e-002 -5.23378067e-002 1.21378750e-002
      -2.38028076e-002 -4.04093526e-002 1.61944591e-002 2.82445382e-002
      -6.07445166e-002 -2.44980138e-002 9.40949842e-003 -5.15815290e-003
      3.22437249e-002 2.83832215e-002 3.36293429e-002 5.59000485e-002
      6.68934211e-002 -2.92273536e-002 1.07125305e-002 -5.39029613e-002
      -1.38005093e-001 -1.43101634e-002 -2.91712359e-002
      -2.00496446e-002 -2.14862544e-002 -1.19521143e-002
      -3.64724398e-002 1.86948311e-002 -4.12130468e-002 -9.36037898e-002
      2.21425425e-002 3.16936336e-002 8.61038174e-003 3.74687351e-002
      3.11350487e-002 -1.95555575e-002 -3.66609767e-002 -2.36095227e-002
      -2.03662626e-002 -1.23674208e-002 -3.80692184e-002 8.83285236e-003
      2.48008166e-002 3.03544402e-002 -2.73755956e-002 -3.82963046e-002
      -5.01099089e-003 -2.59877509e-003 1.39711816e-002 -2.08702311e-002
      5.32350410e-003 -6.16136566e-003 1.55923245e-002 1.84727516e-002
      -2.08509085e-003 -6.87840879e-002 -8.97993594e-002
      -1.75511818e-002 -2.78948247e-002 -1.23689203e-002
      -3.07645835e-002 1.46905249e-002 -6.20466731e-002 -1.25326542e-002
      -2.30340343e-002 -1.72329266e-002 9.00208857e-003 -3.46266553e-002
      -6.09528422e-002 -1.07379571e-001 -2.54724137e-002
      -4.54568714e-002 -5.35627380e-002 4.56333719e-003 1.47718163e-002
      1.90058686e-002 -3.52839343e-002 -3.33472677e-002 -3.11584156e-002
      5.99511079e-002 3.03634461e-002 4.65187430e-002 4.23114598e-002
      -2.89741857e-003 2.29289029e-002 -2.04504859e-002 -1.60124227e-002
      2.19164416e-003 7.81385973e-002 6.21269569e-002 1.01852491e-001
      -2.21650023e-002 -1.01572582e-002 9.76341031e-003 -7.58416355e-002
      -1.19810075e-001 -1.31258339e-001 -5.11282422e-002
      -5.54724894e-002 -2.93013770e-002 -5.53243496e-002
      -1.04842614e-002 2.08504628e-002 -8.07637200e-002 -8.51186663e-002
      -1.02501273e-001 2.40282025e-002 7.20302400e-004 -1.65203866e-002
      3.15259807e-002 8.40834063e-003 2.64983028e-002 3.80441459e-004
      1.72649529e-002 1.82356611e-002 2.92419679e-002 9.55497846e-003
      5.39160594e-002 5.33224344e-002 1.72689110e-002 6.58810660e-002
      5.19967191e-002 5.96990213e-002 -6.22518314e-003 4.68953922e-002
      2.81397495e-002 6.09496646e-002 -5.32139502e-002 -7.76339173e-002
      2.26306785e-002 -3.36372927e-002 -5.36535271e-002 -7.73418024e-002
      1.72981098e-002 -9.09868628e-003 1.45049645e-002 -2.29843077e-003
      -3.63804176e-002 4.45943810e-002 -4.31534275e-003 -8.76617734e-004
      -7.45731965e-002 5.44338897e-002 3.61234136e-002 6.04103832e-003
      6.12451956e-002 -1.80120692e-002 6.09598011e-002 4.19924930e-002
      3.99692953e-002 -5.32443188e-002 6.67212009e-002 2.31295489e-002
      7.44032115e-002 6.23428635e-002 2.69529521e-002 6.44118711e-002
      3.24576115e-003 6.36788830e-002 8.57717823e-003 8.69349092e-002
      4.72753942e-002 9.19108316e-002 -3.73229161e-002 -6.11351319e-002
      1.52815338e-002 -4.61650491e-002 -5.27588949e-002 -1.14779152e-001
      1.44146224e-002 -1.48207387e-002 2.13070661e-002 -2.39227358e-002
      -3.96700241e-002 4.53492142e-002 -6.60362989e-002 -6.49906248e-002
      -6.22562394e-002 2.36426350e-002 3.84690575e-002 2.15120837e-002
      2.24645622e-002 -6.63062697e-003 2.17736103e-002 -1.54727092e-003
      2.30804272e-003 -1.97355486e-002 5.09683415e-002 3.54756303e-002
      5.29422387e-002 5.78989536e-002 3.12140826e-002 4.29435633e-002
      3.18940468e-002 5.05705737e-002 2.51960270e-002 6.38553873e-002
      4.86048199e-002 7.27706105e-002 -2.77581606e-002 -3.23830694e-002
      1.59830451e-002 -8.65388736e-002 -8.09687227e-002 -8.35215300e-002
      -5.04984800e-003 4.18735594e-002 4.62240912e-002 5.64512797e-003
      -2.29883697e-002 4.01072344e-003 -4.60856631e-002 -5.17962798e-002
      -7.44391754e-002 1.40786581e-002 2.83657536e-002 2.81385519e-002
      6.38369396e-002 2.77815363e-003 6.92037679e-003 -3.65492962e-002
      4.97953631e-002 2.41096877e-002 1.85107943e-002 -2.76626498e-002
      4.89229374e-002 5.90316728e-002 2.91856527e-002 5.17466851e-002
      5.37051447e-002 5.15324920e-002 7.17328265e-002 6.36375397e-002
      2.44092122e-002 5.95042296e-002 -1.78430956e-002 -7.51101226e-002
      -5.40179797e-002 -1.02171108e-001 -6.66980222e-002
      -1.11528955e-001 -5.10576144e-002 -6.63619936e-002
      -2.95624286e-002 -2.07403302e-003 -5.84976636e-002
      -8.87703802e-003 -2.29824707e-002 -5.68192303e-002
      -9.41835493e-002 -5.98509647e-002 -6.15570247e-002
      -1.69184078e-002 -1.95469782e-002 -2.93481606e-003
      -4.22627153e-003 3.08070593e-002 -1.09544257e-002 -4.34175394e-002
      -1.84886735e-002 -4.10278291e-002 -2.45948378e-002 1.44205159e-002
      5.29323928e-002 2.58868113e-002 7.93316290e-002 5.55143505e-002
      1.08143501e-002 5.30708693e-002 1.29757188e-002 -3.67195602e-003
      -6.07809275e-002 -5.82897291e-002 -5.32616191e-002
      -6.60517067e-002 -7.08622485e-002 -1.39822572e-001
      -1.31540164e-001 -1.10503957e-001 -7.65930787e-002 3.98936011e-002
      8.05701613e-002 1.86110716e-002 1.85843781e-002 -2.35563680e-003
      -5.97930737e-002 3.53979366e-003 -2.67285551e-003 1.39078591e-002
      -5.75715043e-002 3.86344157e-002 -1.13008553e-002 -2.36308184e-002
      4.24986742e-002 -1.57475949e-003 -2.42549484e-003 -9.65145323e-003
      -5.27436994e-002 -4.15863730e-002 6.57266527e-002 5.04938187e-003
      -1.42765176e-002 2.60489397e-002 3.02321576e-002 -3.71266785e-003
      2.49415487e-002 -6.37471676e-002 -2.13955180e-004 5.58839589e-002
      -4.03829152e-003 -3.16883549e-002 5.85817844e-002 -4.93628234e-002
      -1.37502020e-002 1.02171116e-002 -2.65768655e-002 -3.01651214e-003
      8.40888098e-002 1.65314730e-002 -4.55471650e-002 1.19650895e-002
      2.55482714e-003 -9.42742825e-003 5.18971570e-002 -1.30069396e-002
      1.48095749e-002 3.39568630e-002 4.98378696e-003 -8.27625766e-002
      -6.60930648e-002 -2.50753891e-002 9.77451913e-003 2.66335998e-002
      -3.43576143e-003 -3.89923044e-002 2.46704724e-002 -8.69799778e-003
      -6.50295839e-002 -4.72838730e-002 -3.58196422e-002 1.50156189e-002
      -6.26537390e-003 -8.35411996e-002 -3.72169986e-002 7.37526044e-002
      5.09674139e-002 -2.08249353e-002 -2.97370013e-002 -2.27764323e-002
      2.54680905e-002 2.57593747e-002 -5.66833839e-002 -3.40284035e-002
      7.98195079e-002 -4.45583649e-003 -5.81050552e-002 -1.87211216e-003
      -4.97949310e-002 3.10586523e-002 7.52817560e-003 -8.75841081e-002
      2.43141297e-002 5.90245500e-002 -1.63683239e-002 1.92369148e-002
      -1.35707064e-002 4.74412404e-002 8.84325653e-002 9.59019810e-002
      3.16117741e-002 -1.06473707e-001 -6.36437982e-002 -4.63306122e-002
      -3.62922810e-002 -1.62800252e-002 -6.64308318e-004 4.31719124e-002
      2.04032790e-002 -3.44577655e-002 4.16057445e-002 -8.13874137e-003
      -2.29965866e-001 -2.08405420e-001 -1.00484282e-001
      -8.70466116e-004 7.37787038e-002 1.20884329e-001 5.04618734e-002
      -1.51954412e-001 -2.22489774e-001 -2.74506181e-001
      -1.63893774e-001 -7.16908872e-002 -6.52725110e-003 9.87501349e-003
      3.97980735e-002 -5.66032119e-002 -7.28150830e-002 2.38587745e-002
      6.68659210e-002 2.95298174e-002 5.24696410e-002 3.35895307e-002
      -1.29948249e-002 -8.83544236e-002 -8.87026489e-002 5.04693799e-002
      5.21270186e-002 1.54121034e-002 -4.93796431e-002 4.12657484e-002
      3.52641679e-002 -4.33660559e-002 -1.38461441e-001 -7.03547001e-002
      -1.70052931e-001 -8.97101164e-002 -6.56917412e-003 9.22114868e-003
      4.11387309e-002 1.44129694e-002 -8.90082121e-002 -1.57834291e-001
      -1.98506564e-001 -2.60629486e-002 -1.83076728e-002
      -6.98728710e-002 -7.76312649e-002 -1.01792468e-002
      -8.32542032e-003 -1.21096812e-001 -2.22585633e-001
      -1.60309508e-001 3.90852690e-002 -1.95123896e-001 -2.77934700e-001
      -2.39205986e-001 -2.43243985e-002 4.89163436e-002 -5.22227783e-004
      -4.65235822e-002 5.15374206e-002 -1.04804635e-002 -1.62645817e-001
      -1.75934672e-001 -5.32478355e-002 7.67384395e-002 1.07233934e-001
      1.04084514e-001 7.40854964e-002 1.15129612e-001 4.80235890e-002
      -1.36442825e-001 -2.75673777e-001 -2.55972385e-001
      -3.73135768e-002 -2.07777303e-002 -8.71895775e-002
      -1.35967985e-001 9.25005693e-003 1.01273328e-001 3.18946801e-002
      -5.28896302e-002 4.30343352e-004 1.03153519e-001 6.07916117e-002
      4.95776832e-002 4.00552824e-002 1.25972033e-001 -1.19870968e-001
      -2.18706578e-001 -6.44271895e-002 -3.84945534e-002 1.37711903e-002
      -1.44205047e-002 -3.20375450e-002 -6.89835399e-002
      -2.77924351e-003 -4.46380153e-002 -3.23473960e-002 4.83252741e-002
      2.45837104e-002 1.11691793e-002 -1.65862571e-002 -4.85779382e-002
      -5.91186509e-002 -1.37390606e-002 1.81057565e-002 1.69309545e-002
      6.56350777e-002 5.83732426e-002 4.31801677e-002 -4.14724275e-002
      -3.74132544e-002 -5.64183667e-002 5.74394353e-002 1.57123562e-002
      5.49124479e-002 9.21876803e-002 7.27843493e-002 8.32110345e-002
      4.92887385e-002 2.33345069e-002 -4.76808138e-002 2.74402276e-002
      -4.29777913e-002 -1.16825894e-001 -1.73287708e-002 3.67692560e-002
      2.75483076e-002 -2.06704624e-002 -4.04003598e-002 -9.84999463e-002
      -1.20909717e-002 -5.37099466e-002 -1.67653888e-001
      -5.04488684e-002 3.67891276e-003 7.31448131e-003 -1.81158762e-002
      -2.72917058e-002 -9.15970355e-002 1.60429645e-002 -1.99605227e-002
      -4.75229211e-002 3.70698348e-002 3.03830318e-002 7.60443211e-002
      4.74286340e-002 3.37651223e-002 -4.91442271e-002 1.80204939e-002
      8.68733227e-003 -4.51952703e-002 3.43686081e-002 7.22656548e-002
      7.89164975e-002 3.80395651e-002 4.91425395e-002 1.18812025e-002
      4.28817198e-002 -8.96483585e-002 -2.36387193e-001 -6.44751042e-002
      -1.91548374e-002 2.10051481e-002 -3.13558988e-002 -3.40468176e-002
      -7.63939172e-002 -2.71137021e-002 -8.44412223e-002
      -1.66739315e-001 -8.48155189e-003 5.83416931e-002 4.26334441e-002
      4.62495647e-002 -1.42158987e-002 -6.88019320e-002 -3.56436446e-002
      1.97082032e-002 -7.13987648e-002 4.62710522e-002 4.20323387e-002
      4.98844646e-002 1.43994093e-002 8.91309977e-003 1.69158522e-002
      6.81994483e-002 -9.75922274e-004 -5.04570864e-002 6.03415705e-002
      8.59516561e-002 5.57492115e-002 7.86788315e-002 6.92682788e-002
      6.14985861e-002 6.40840977e-002 -1.35505170e-001 -1.51104912e-001
      -3.61275896e-002 1.32875005e-003 -3.21607217e-002 -2.94339843e-002
      -1.19064609e-002 -1.23870246e-001 -8.80549923e-002
      -1.04624063e-001 -9.11213234e-002 -1.57052819e-002
      -4.71890625e-003 -3.41827273e-002 -6.65312186e-002
      -5.04001714e-002 -1.50696173e-001 -1.22018747e-001 7.57682230e-003
      -2.02548262e-002 3.72474939e-002 4.01696675e-002 1.77041031e-002
      -2.36372929e-002 1.25621017e-002 9.68993700e-004 7.01633245e-002
      5.80744743e-002 3.74001674e-002 6.62643909e-002 6.80024847e-002
      -2.66420189e-003 2.80600088e-003 1.76205132e-002 8.91846977e-003
      5.40724350e-003 -7.53364712e-002 -4.30005789e-002 4.03686948e-002
      2.10739132e-002 -1.08067403e-002 -6.48431629e-002 -2.25899629e-002
      -1.62490115e-001 -1.40354514e-001 -9.87150893e-002
      -3.47058102e-002 5.87648191e-002 7.65653793e-003 -3.44412103e-002
      -7.99715668e-002 3.70632787e-003 -1.28221542e-001 -9.79794040e-002
      7.98657909e-002 2.86748614e-002 9.61366817e-002 8.71739611e-002
      5.23998179e-002 1.28948316e-002 3.79062928e-002 -1.85710713e-002
      -2.57017687e-002 -4.06988449e-002 -3.70668322e-002 7.42297918e-002
      8.70644748e-002 6.64106458e-002 1.90939810e-002 1.06700897e-001
      -6.10164516e-002 -4.24440801e-002 -6.14345074e-002
      -4.62351777e-002 5.64737841e-002 3.53925489e-002 -1.46287968e-002
      -7.34650483e-003 8.56731012e-002 -5.49651533e-002 -5.53739853e-002
      -6.73131943e-002 -6.68452978e-002 6.08139448e-002 3.89312655e-002
      3.32742855e-002 1.53716868e-002 1.05679460e-001 -1.38820400e-002
      -1.41806128e-002 -2.07452700e-002 -4.90059257e-002 7.37861246e-002
      6.39477372e-002 4.70708124e-002 4.64524180e-002 1.26770228e-001
      -7.14436099e-002 2.75659300e-002 -4.49839756e-002 -1.23024091e-001
      2.69409828e-002 6.26643002e-002 5.95917366e-002 5.23626767e-002
      8.38645101e-002 -4.66545261e-002 -1.46510294e-002 -2.06199964e-003
      -5.36522828e-002 6.86018467e-002 3.94317433e-002 5.01441862e-003
      1.46605467e-004 8.83984640e-002 -2.81607988e-003 4.38573137e-002
      2.61616763e-002 -3.53060961e-002 8.63983855e-002 -1.94637030e-002
      8.22451990e-003 2.48177536e-002 8.43210071e-002 8.97624064e-003
      3.97548452e-002 1.92636587e-002 -1.20768130e-001 4.09282409e-002
      4.35070097e-002 4.26731594e-002 3.15914452e-002 5.57951108e-002
      -1.54895009e-002 3.58823724e-002 -3.78417782e-002 -9.29915681e-002
      6.64788336e-002 1.80726517e-002 4.04158160e-002 3.32531296e-002
      3.38465273e-002 -3.61779183e-002 -3.94565761e-002 3.55750583e-002
      7.59502733e-003 7.06249848e-002 4.31798398e-003 3.85642499e-002
      3.54981646e-002 9.23322588e-002 2.57076509e-002 4.75154445e-002
      3.80540639e-002 1.43161707e-003 6.78451806e-002 4.98427562e-002
      5.88423163e-002 2.39340495e-002 7.94382691e-002 1.18559673e-002
      3.51362303e-002 -4.32308502e-002 -4.37516160e-002 6.60819858e-002
      3.63378935e-002 6.45988807e-002 6.08610325e-002 8.14037099e-002
      -6.50897697e-002 -6.12203442e-002 -1.12735204e-001
      -1.22395888e-001 2.53647771e-002 9.11979284e-003 3.72827090e-002
      4.92383204e-002 5.28098047e-002 -1.18830174e-001 -1.10477895e-001
      7.66126346e-003 -4.05967124e-002 1.54301766e-002 2.00160053e-002
      6.70192987e-002 2.14673281e-002 5.42922728e-002 2.04937886e-002
      2.71028467e-002 4.07313146e-002 2.37251818e-002 6.92670718e-002
      8.40871856e-002 6.86304346e-002 6.00773506e-002 7.15324581e-002
      3.95865515e-002 3.26631367e-002 -9.00320187e-002 -1.44295350e-001
      -8.31631124e-002 -9.47067514e-002 3.32507528e-002 1.31068174e-002
      2.16932315e-002 -8.50397572e-002 -8.07644576e-002 -7.33158812e-002
      -1.24612898e-001 -6.63788766e-002 -3.39833759e-002
      -4.41680066e-002 -2.92451419e-002 1.25502218e-002 -6.39898255e-002
      -4.86360006e-002 -1.70254558e-002 -2.76096608e-003 9.26490873e-004
      -2.36438140e-002 -7.48536214e-002 -1.33495435e-001
      -7.54925832e-002 -6.84280619e-002 -4.20303531e-002 1.14574544e-001
      1.36689618e-001 8.70932490e-002 1.26692325e-001 7.40812346e-002
      -7.97889847e-003 4.53230403e-002 1.04102470e-001 1.00057334e-001
      -1.09392464e-001 -1.42789006e-001 -9.55789909e-002
      -1.25574455e-001 -1.92770690e-001 -2.08273590e-001
      -1.41228527e-001 -1.28215045e-001 -1.09853707e-001 5.86396270e-002
      8.55047405e-002 7.25063235e-002 4.08177748e-002 -9.74956620e-003
      -2.79242508e-002 1.20773213e-002 1.17832363e-001 7.03794658e-002
      -8.49961210e-003 1.86676681e-002 1.17167225e-002 -1.87338758e-002
      3.20722237e-002 -6.31795228e-002 -8.54578521e-003 1.74507275e-002
      -1.91999748e-002 3.63310985e-002 6.83647171e-002 2.44749039e-002
      -4.94267680e-002 -2.40599494e-002 -4.55170013e-002 1.51453139e-002
      6.62088320e-002 5.85415913e-003 -1.80585235e-002 3.80889587e-002
      6.44917646e-003 -4.71985452e-002 5.65087497e-002 -5.25363386e-002
      -5.72929084e-002 5.18508777e-002 -3.48322168e-002 2.23691426e-002
      7.11836293e-002 1.21978307e-002 -7.75348917e-002 6.17281627e-003
      -3.93896624e-002 -2.35345103e-002 8.66564885e-002 5.74771140e-004
      -1.24282226e-001 5.62382862e-002 5.24083041e-002 2.13541333e-002
      1.20539684e-002 2.63504423e-002 5.21912389e-002 4.80130650e-002
      -1.16835281e-001 -1.28996521e-001 6.81033805e-002 1.37615763e-002
      -5.30768521e-002 -4.73438129e-002 -5.31494059e-002 5.94521267e-003
      1.60303004e-002 -1.06357083e-001 -1.33228675e-001 2.50678509e-003
      7.97722489e-002 2.61732694e-002 4.09396514e-002 5.83236217e-002
      8.60589743e-002 5.63202687e-002 -1.09110773e-001 -1.36155367e-001
      -1.42752640e-002 3.19685489e-002 -6.45018220e-002 -4.00523096e-002
      -2.89035849e-002 -8.86537193e-004 3.54080088e-002 -8.98386315e-002
      1.08751640e-001 5.87175265e-002 -1.45499960e-001 -1.92783073e-001
      -1.30694315e-001 -8.68958533e-002 -6.54708873e-003 9.68064740e-002
      1.26553163e-001 1.49193872e-002 -1.10187262e-001 -1.90422818e-001
      -1.34546563e-001 -6.14746921e-002 -6.17138930e-002
      -5.50358333e-002 3.49052809e-002 7.19579533e-002 1.26461878e-001
      9.97199938e-002 -1.12131825e-002 -9.81027856e-002 -1.10355914e-001
      -2.06177697e-001 -1.45966291e-001 1.59856677e-002 1.16574436e-001
      7.95065984e-002 5.48957102e-002 -2.40412802e-002 -5.38491644e-002
      -3.67354788e-002 -1.65017813e-001 -1.92285314e-001
      -1.45153150e-001 6.65841391e-003 -1.17535308e-001 -8.42445195e-002
      -8.08587298e-003 1.26849357e-002 6.40520379e-002 2.14812122e-002
      -3.72873917e-002 -1.04790099e-001 -1.11844145e-001
      -5.71079142e-002 -1.43881151e-002 -2.52205171e-002
      -3.56331803e-002 2.36382727e-002 -1.28186224e-002 -1.03088237e-001
      -1.38102457e-001 -6.22545071e-002 -1.28395513e-001
      -1.09378926e-001 -3.24125513e-002 3.57933603e-002 6.56655878e-002
      -6.01576269e-003 -2.84173321e-002 -1.12738907e-001
      -1.17376268e-001 -1.10164784e-001 -1.63668096e-001
      -9.96787846e-002 -1.64325163e-002 2.31295712e-002 -2.41539516e-002
      -5.85164875e-002 -1.47163933e-002 -1.65278576e-002 5.51151633e-002
      -6.35073334e-002 -1.68700323e-001 -1.74040288e-001
      -7.22500831e-002 -1.25928313e-001 -1.57291532e-001
      -1.11459054e-001 3.55159193e-002 1.53007314e-001 9.11604762e-002
      4.33896668e-002 4.59961854e-002 5.48586957e-002 -6.08550431e-003
      -2.65875570e-002 4.68884930e-002 1.37468159e-001 -3.87812243e-003
      -1.36607707e-001 -1.50174990e-001 -1.13238171e-001
      -9.16930661e-002 -2.01229095e-001 -1.96998194e-001
      -6.77254200e-002 4.75339852e-002 1.03392996e-001 4.83693816e-002
      -1.85743868e-002 3.97015596e-003 6.08825870e-002 1.49406977e-002
      1.97760435e-003 6.64988011e-002 1.56201914e-001 4.39041406e-002
      1.14531955e-003 1.33925406e-002 1.38657307e-002 2.74950583e-002
      -4.94286977e-002 -2.75828652e-002 -4.81401943e-002 2.82731149e-002
      5.55969439e-002 4.75901887e-002 7.45870173e-002 6.73242807e-002
      1.09456673e-001 6.85296506e-002 3.14344764e-002 1.41321803e-002
      3.10230479e-002 4.68988903e-003 -5.57637736e-002 -4.73219715e-002
      -5.17518027e-003 6.93859756e-002 4.06450033e-002 1.59546267e-002
      -6.44032750e-003 3.19169611e-002 1.16970213e-002 -4.60177101e-003
      1.51087753e-002 6.50633946e-002 1.62694901e-001 1.20771416e-001
      1.02749072e-001 5.79691902e-002 3.53345089e-002 3.47386710e-002
      -3.91956121e-002 -1.29576970e-003 -1.34930434e-003 3.25814821e-002
      -1.87427481e-003 6.26687938e-003 -3.06497216e-002 -2.00031959e-002
      7.93325081e-002 -3.59875360e-003 1.28874844e-002 4.51815454e-003
      5.03557473e-002 3.06883617e-003 2.94129159e-002 -5.24103502e-003
      8.08674768e-002 -6.74850214e-003 -4.31567729e-002 1.73136145e-002
      9.64371767e-003 7.20212087e-002 -8.83827638e-003 2.08343714e-002
      -1.33808758e-002 5.05885780e-002 4.70241942e-002 2.80132033e-002
      2.47877985e-002 5.05050793e-002 6.88294396e-002 4.77032363e-002
      6.44025728e-002 1.24224578e-003 6.81926906e-002 1.01632178e-001
      -1.96448881e-002 6.50659064e-003 -5.27762473e-002 -3.97232920e-002
      -4.81864028e-002 -3.41932178e-002 -2.12053955e-003 8.93498659e-002
      6.84053898e-002 -2.40932079e-003 2.86379848e-002 -1.25960670e-002
      -5.09212576e-002 -2.81698108e-002 -6.26848871e-003 1.75804663e-002
      9.71587300e-002 5.98366186e-002 3.05139571e-002 -3.51068154e-002
      -4.41464745e-002 -2.14979425e-002 1.78245660e-002 4.36124466e-002
      -3.26652825e-002 5.96792474e-002 8.32183808e-002 2.59222779e-002
      -2.40094922e-002 -4.51146662e-002 -6.37558699e-002 2.45498717e-002
      3.82653587e-002 -4.67713689e-003 6.54210672e-002 6.93606958e-002
      3.93027061e-004 -2.02403329e-002 -5.96566051e-002 -8.00938085e-002
      -9.60650966e-002 -2.18660384e-002 -2.17116680e-002 8.57888833e-002
      5.66443093e-002 1.21748401e-002 2.36458965e-002 -2.04789527e-002
      -6.71987608e-002 -3.59009840e-002 4.93621547e-003 -8.26552883e-003
      7.58423358e-002 8.02668482e-002 -7.71715352e-003 -5.91224246e-002
      -1.14629008e-001 -1.11801445e-001 -6.36093989e-002
      -4.01209574e-003 -2.59236507e-002 5.96392043e-002 5.92711605e-002
      -1.07983802e-003 -1.66446473e-002 -5.24303503e-002
      -6.96097836e-002 -3.67501900e-002 9.62347898e-004 -2.29773428e-002
      6.48183897e-002 1.02690309e-001 -2.01984923e-002 5.71682043e-002
      3.20225321e-002 3.17494310e-002 -5.32312784e-003 5.69117814e-002
      -1.82996914e-002 4.05963324e-002 -2.07708776e-002 -1.08426459e-001
      3.41942422e-002 1.18913865e-002 -5.81631297e-003 -4.23269952e-003
      6.40029088e-002 -8.69421810e-002 -1.54413385e-002 1.90155394e-002
      -2.08931230e-002 6.81034848e-002 2.17228895e-003 1.41643686e-002
      4.97564580e-003 2.28810683e-002 -4.44852300e-002 5.65272681e-002
      -2.00434756e-002 -8.43821764e-002 6.75936043e-002 -4.34888666e-003
      2.86831334e-003 -5.93563949e-004 1.10890046e-002 -1.09550253e-001
      -5.48368879e-002 3.80680934e-002 -5.78934215e-002 7.96754584e-002
      4.51564752e-002 1.58276241e-002 2.25909296e-002 8.14889595e-002
      -4.60082032e-002 5.87733313e-002 -2.25635301e-002 -1.45432457e-001
      -1.47563489e-002 3.83440107e-002 4.90775853e-002 2.82489713e-002
      1.33666275e-002 -1.16481714e-001 -3.07665300e-002 4.83355112e-002
      -4.25666850e-003 9.57939848e-002 5.23157343e-002 3.73710655e-002
      3.32010426e-002 4.27085198e-002 -7.16230795e-002 -3.15484998e-004
      -3.10292207e-002 -7.50056878e-002 3.92234065e-002 7.25570470e-002
      5.60196899e-002 5.05043305e-002 -3.22264098e-002 -1.67104393e-001
      -5.12539744e-002 3.87034044e-002 -8.68027881e-002 2.75814477e-002
      3.20744812e-002 3.50269489e-002 3.91669348e-002 3.85914445e-002
      -4.78174277e-002 6.81533143e-002 8.28928035e-003 -5.05548269e-002
      6.77456036e-002 2.61321366e-002 4.44281101e-002 4.07863557e-002
      5.49421124e-002 -3.25237624e-002 2.68665850e-002 1.91627834e-002
      -2.30430029e-002 4.44959477e-002 4.46086489e-002 3.45853046e-002
      6.66743070e-002 3.77456563e-005 -1.53727680e-001 2.80975122e-002
      -1.47693772e-002 -2.95153838e-002 6.08699173e-002 1.78284943e-002
      1.83954425e-002 6.47979453e-002 4.72661778e-002 -7.89231285e-002
      1.38166230e-002 2.69219782e-002 -1.79350690e-003 6.18991554e-002
      5.08249104e-002 6.32840618e-002 5.55548370e-002 8.92451406e-002
      1.71827432e-002 3.98229761e-003 -5.61859980e-002 -5.33231013e-002
      1.90352779e-002 2.42051445e-002 8.03805962e-002 3.69032845e-002
      3.40650976e-002 -5.55386543e-002 -7.39415288e-002 -2.45638974e-002
      3.40908591e-004 1.05470277e-001 4.70664166e-002 3.87993418e-002
      4.57534529e-002 4.41068411e-002 -5.94970398e-003 3.06815188e-002
      -6.08573519e-002 -5.50679564e-002 3.88601571e-002 1.34156430e-002
      4.45328131e-002 -2.19563469e-002 5.71410032e-003 -6.89021870e-002
      -4.10922803e-002 -1.29182898e-002 -7.27783442e-002
      -2.33343691e-002 -3.78154926e-002 7.11912215e-002 -3.65148019e-003
      3.45259830e-002 -3.98394875e-002 -4.50776666e-002 -3.66078056e-002
      -8.06275755e-002 -4.37448965e-003 -6.80714939e-003
      -1.86310969e-002 -3.17289345e-002 1.60524491e-002 -1.11149102e-002
      -6.03439547e-002 -3.40999067e-002 -5.62381074e-002 2.07796339e-002
      -4.61145490e-003 6.15568087e-002 -8.03190693e-002 -2.46283542e-002
      -7.77335688e-002 -2.29167696e-002 -4.45089228e-002
      -3.57315317e-002 3.34121883e-002 -3.67208570e-002 -3.52266505e-002
      1.61094868e-004 -1.20448628e-002 -8.30651000e-002 -3.37248296e-002
      -9.25621167e-002 -8.87779966e-002 -4.73314635e-002
      -1.63975805e-001 -1.87500358e-001 -2.09906325e-001
      -7.52576962e-002 -5.42325750e-002 -8.25341493e-002 7.74525255e-002
      1.02420688e-001 9.37514827e-002 6.14159107e-002 -8.42486881e-003
      4.82885540e-002 7.81383440e-002 1.20800465e-001 8.43017101e-002
      -1.18572675e-001 -5.64222112e-002 -7.31403530e-002
      -2.24086627e-001 -1.91222385e-001 -1.13681503e-001
      -7.41870478e-002 -1.00662261e-001 -7.40464181e-002 8.23631361e-002
      1.17662981e-001 4.73993905e-002 2.94722803e-002 -1.60244666e-002
      9.17738602e-002 1.40555725e-001 1.40164554e-001 1.16443381e-001
      -3.59342247e-002 2.84962039e-002 -4.93993517e-003 -7.56402314e-002
      4.21649143e-002 -5.28779030e-002 -3.88789475e-002 5.12566417e-002
      -4.39762883e-002 -2.32270863e-002 4.91871350e-002 1.00710979e-002
      -4.16723192e-002 4.22117785e-002 -3.96815203e-002 -3.87691573e-004
      5.12666442e-002 -7.00030290e-003 -3.01620346e-002 3.44558358e-002
      -3.70618850e-002 -6.49861172e-002 2.78290734e-002 -5.44594191e-002
      -1.21959569e-002 5.31651638e-002 -2.02556551e-002 -1.34906247e-002
      4.45656404e-002 -2.93966150e-003 -3.00816521e-002 4.34885323e-002
      -1.06617445e-002 -2.18280405e-003 6.71923310e-002 3.33870668e-003
      -7.13614970e-002 3.45157534e-002 6.55869171e-002 -1.40681705e-002
      -1.37154348e-002 -1.58915352e-002 5.96241690e-002 4.25020978e-002
      -4.62687165e-002 -9.46210548e-002 -1.24642430e-002 2.09047738e-002
      -4.44123149e-002 1.26868989e-002 -4.56482060e-002 7.75942486e-003
      4.79748286e-002 -6.39877990e-002 -2.98517458e-002 4.61134575e-002
      4.63931262e-002 -3.01591158e-002 -6.22036643e-002 -1.25460401e-001
      5.07348683e-003 3.26684453e-002 -2.28984859e-002 -7.17043206e-002
      -1.47499507e-002 1.90540515e-002 -4.18386236e-002 -3.09687648e-002
      -1.03623025e-001 -1.51467314e-002 2.12017782e-002 -5.10594137e-002
      3.29332873e-002 8.01058933e-002 5.14003746e-002 -1.54093269e-003
      -5.72049879e-002 -1.74796611e-001 -1.69519112e-001
      -5.10660596e-002 1.99845955e-002 -4.59864996e-002 3.16042453e-002
      9.28243995e-003 1.42472236e-005 -2.27832869e-002 -1.73541367e-001
      -2.48837665e-001 -2.54995555e-001 -1.53237984e-001 4.09878939e-002
      7.11434633e-002 7.07390606e-002 2.93230861e-002 -6.74297451e-004
      -1.45507408e-002 -1.51366033e-002 5.46817519e-002 8.09920393e-003
      -1.36030568e-002 4.55421098e-002 4.64969911e-002 -1.12039866e-002
      -8.24751705e-003 -5.21159843e-002 -5.72172031e-002
      -8.72653499e-002 -8.55180770e-002 -2.04622671e-001
      -1.58120528e-001 -3.89439538e-002 2.94217281e-002 6.73559979e-002
      3.67759392e-002 2.63894666e-002 -9.91420969e-002 -1.73848510e-001
      -1.61468506e-001 -2.35217437e-001 -1.19765788e-001 1.57271065e-002
      -3.43551976e-003 -9.26335528e-002 -5.98171949e-002
      -1.76189914e-002 -3.38987075e-002 -1.05904393e-001
      -7.59421140e-002 2.58276332e-002 2.17488129e-002 1.54437097e-002
      2.91352421e-002 5.91529980e-002 6.32128213e-003 -6.83130622e-002
      -6.62895516e-002 -1.34939224e-001 -3.25486213e-002 9.33590624e-003
      -2.29606027e-004 -5.07013202e-002 3.97643633e-003 7.24907741e-002
      4.84435782e-002 -1.03683053e-002 -1.20222315e-001 -7.95783773e-002
      -2.70778500e-003 -2.16271114e-002 -2.36622229e-001
      -2.65994042e-001 -1.22869745e-001 5.99242635e-002 1.06928222e-001
      2.56525930e-002 6.76828949e-003 6.84094429e-002 1.30804569e-001
      4.32569825e-004 -5.59248738e-002 -1.32377464e-002 9.09762308e-002
      7.51273334e-002 -1.83789507e-002 9.91218537e-003 3.48948501e-002
      -4.00229208e-002 -2.04788923e-001 -2.72668153e-001
      -1.88723311e-001 3.54842432e-002 1.15434557e-001 9.33555737e-002
      8.71970803e-002 9.33285058e-002 8.64965171e-002 -1.74656212e-002
      -1.64031520e-001 -1.66220799e-001 -2.13485081e-002 3.49897444e-002
      -5.55467270e-002 -8.17488655e-002 -2.82262843e-002 5.04639409e-002
      7.77885467e-002 5.75713404e-002 -3.35219428e-002 1.54046770e-002
      2.14419290e-002 -3.14628817e-002 1.30212912e-002 5.13987169e-002
      8.44191387e-002 9.13807750e-002 1.23920597e-001 3.50109562e-002
      5.74531741e-002 -1.07184323e-002 -3.52797024e-002 -4.28639501e-002
      -1.21867526e-002 -1.60227790e-002 -2.64320597e-002
      -7.18794838e-002 -2.17074424e-001 -1.07316628e-001
      -1.28853191e-002 -4.21376228e-002 -3.99067588e-002 2.58245338e-002
      -8.57826043e-003 3.33454683e-002 8.58199298e-002 -6.17664084e-002
      -4.84916195e-002 1.40974130e-002 -4.62729037e-002 3.21437381e-002
      3.20320576e-002 5.32629453e-002 1.87511891e-002 6.61381111e-002
      -2.43945736e-002 2.36602351e-002 5.24222590e-002 2.54566525e-003
      4.86907624e-002 5.86907715e-002 6.20249324e-002 6.71513528e-002
      5.47030978e-002 -4.16612029e-002 4.47263978e-002 -1.79230068e-002
      -7.51169100e-002 -5.36744781e-002 -4.32279445e-002
      -1.65597238e-002 7.37468433e-003 7.23689562e-003 -1.32680178e-001
      -4.92532589e-002 9.33520123e-003 -5.89987971e-002 -2.63337735e-002
      -3.15425284e-002 -1.81746297e-002 -9.03013349e-003
      -6.08690158e-002 -1.67386740e-001 -5.44945747e-002 7.01330975e-002
      2.57483614e-003 1.23909563e-002 7.39061972e-003 5.03179841e-002
      5.77704944e-002 8.46892074e-002 -7.07553253e-002 7.42746145e-003
      7.15473592e-002 5.81101887e-002 4.58836891e-002 1.63411610e-002
      4.97875512e-002 1.02460317e-001 7.57467672e-002 -6.06453381e-002
      3.05430330e-002 -4.83375341e-002 -7.44724199e-002 -3.54843400e-002
      -1.08722001e-002 1.89721975e-002 -1.42881218e-002 -7.36100972e-002
      -2.17295185e-001 -8.98878425e-002 -5.99221103e-002
      -5.20710200e-002 -1.06846392e-002 -1.11055076e-002 9.03905649e-003
      5.99506572e-002 -2.23915037e-002 -1.62591264e-001 -1.15571760e-001
      9.60751697e-002 3.35260630e-002 5.04350886e-002 -3.57922912e-002
      9.23600607e-003 6.58298880e-002 4.29509096e-002 -4.56705578e-002
      3.97747606e-002 8.43207072e-003 1.70343928e-002 8.71580914e-002
      -4.14970051e-003 1.91347897e-002 9.41025689e-002 8.09234306e-002
      7.03318929e-003 5.57673946e-002 -1.09347530e-001 -8.29644352e-002
      7.52888154e-003 -4.81779203e-002 -9.98313166e-003 5.58938272e-002
      -1.43999970e-002 -1.30466834e-001 -1.48064762e-001
      -1.59179732e-001 -1.47672296e-001 -1.96406934e-002
      -6.04470894e-002 -3.81071344e-002 1.50875123e-002 4.13419083e-002
      -9.73915309e-002 -1.65573388e-001 -2.42553279e-003
      -1.30257765e-002 9.66762900e-002 3.78716253e-002 6.55757040e-002
      9.59468037e-002 7.33897686e-002 -2.89940997e-003 7.02337101e-002
      -8.34114011e-003 -1.32449977e-002 1.31022930e-001 4.99629341e-002
      5.10693751e-002 6.50210381e-002 8.23543072e-002 -1.28837079e-002
      -9.50408913e-003 -1.45403594e-001 -1.29810140e-001 2.10902281e-002
      -6.17717803e-002 -4.40850817e-002 2.48827655e-002 6.19510412e-002
      -5.13539910e-002 -8.89241546e-002 -7.33396709e-002
      -7.99082369e-002 2.61204839e-002 -7.95675591e-002 -4.25300635e-002
      1.04739442e-002 6.34716600e-002 -2.00699288e-002 -5.97078465e-002
      -9.06074140e-003 -3.30645479e-002 1.13096707e-001 4.44255657e-002
      4.88120802e-002 5.06361462e-002 6.75169900e-002 -3.85320596e-002
      -2.68103108e-002 -5.20560406e-002 -3.22947130e-002 8.99259821e-002
      8.01369697e-002 5.16067334e-002 7.60480911e-002 2.15889905e-002
      -1.13366857e-001 -7.83088878e-002 -5.40992096e-002
      -1.61602516e-002 8.92707482e-002 -2.04711109e-002 -1.27666192e-002
      3.64317559e-002 6.31356686e-002 -2.51550917e-002 -1.93380658e-002
      -3.76472510e-002 1.40426531e-002 1.05919749e-001 5.28364256e-002
      1.33534186e-002 6.16946518e-002 5.86137399e-002 -6.02500923e-002
      -3.53231654e-002 2.31487229e-002 -1.90070912e-003 7.69168362e-002
      4.55981158e-002 3.41891572e-002 6.28609434e-002 1.61860641e-002
      -1.33632347e-001 -2.31421925e-002 -4.27503847e-002
      -2.14843936e-002 6.75130635e-002 2.53828671e-002 3.97837069e-003
      2.73288097e-002 1.36715770e-002 -9.25164595e-002 -4.36189212e-002
      1.97367389e-002 5.23807965e-002 1.06191806e-001 2.14414205e-002
      2.79276688e-002 5.56162484e-002 4.75712530e-002 -5.42303436e-002
      1.54185817e-002 1.98657271e-002 7.13983700e-002 8.53952840e-002
      1.14691351e-002 -1.91399101e-002 7.84404983e-004 5.17638139e-002
      -2.28776596e-002 3.18273231e-002 -4.84690592e-002 -6.50612265e-002
      7.78411403e-002 4.16060872e-002 1.60993170e-002 2.18035039e-002
      3.09145730e-002 -2.87836194e-002 -4.42465581e-002 -9.43389535e-002
      -6.68918639e-002 6.10505380e-002 2.98092347e-002 1.45783955e-002
      -2.56862268e-002 -7.90677126e-003 -1.00053184e-001
      -8.81847516e-002 5.74259721e-002 8.46233293e-002 1.12173609e-001
      3.98014896e-002 1.82015356e-002 1.06305182e-002 6.52287155e-002
      3.44504900e-002 5.55360802e-002 3.84653024e-002 7.16786608e-002
      9.95341986e-002 1.96584556e-002 1.85183454e-002 3.72431576e-002
      5.78989685e-002 1.96276456e-002 2.86646336e-002 -5.34534231e-002
      -8.08992013e-002 -9.67232697e-003 -1.89363528e-002
      -6.70075556e-003 -1.10687733e-001 -9.71464738e-002
      -1.45282120e-001 -8.26263651e-002 -2.06489377e-002
      -6.36871383e-002 2.33182516e-002 -3.76881771e-002 -3.22348326e-002
      -6.51255576e-003 -5.17694689e-002 -1.45260185e-001
      -5.98235950e-002 2.86857020e-002 1.59876589e-002 4.05713096e-002
      9.74405836e-003 9.32379905e-003 6.16002036e-003 5.10899583e-003
      -4.32523377e-002 1.42012611e-002 9.50180292e-002 3.26607637e-002
      5.01611084e-002 4.70435098e-002 3.67529169e-002 9.19880792e-002
      8.94794688e-002 1.83458589e-002 5.57449572e-002 -1.19474664e-001
      -1.38945296e-001 -1.52045310e-001 -2.44315654e-001
      -1.74572781e-001 -9.19550583e-002 -8.87345523e-002
      -1.73031241e-001 -1.11330420e-001 2.03448962e-002 6.37879893e-002
      3.89795424e-003 -3.58291306e-002 -2.54531093e-002 5.46734706e-002
      1.05895080e-001 8.06282237e-002 3.96260172e-002 -5.18602654e-002
      -9.71607864e-002 -1.20407365e-001 -1.60830528e-001
      -7.73109794e-002 -1.60008669e-002 -1.38832219e-002
      -5.24680652e-002 -4.48960401e-002 5.68857417e-002 5.30607887e-002
      2.13480406e-002 2.62872782e-002 4.30381410e-002 1.08639218e-001
      9.47642848e-002 1.32644951e-001 6.14844151e-002 -4.21684384e-002
      3.05927154e-002 -6.27999455e-002 -4.87504266e-002 5.03753908e-002
      -5.32067455e-002 2.00103014e-003 3.16383839e-002 -5.19607542e-003
      -3.33968028e-002 6.50910139e-002 -3.71476859e-002 -4.79997322e-002
      1.89080946e-002 -3.72683518e-002 7.95596186e-003 8.98145363e-002
      5.15769469e-003 -4.22928855e-002 -3.98366945e-003 -2.37705354e-002
      -5.48607111e-002 3.47438529e-002 -3.77926454e-002 -2.98558697e-002
      2.69798394e-002 -3.98397446e-002 -1.63106546e-002 6.66441843e-002
      -1.60023421e-002 -5.19890934e-002 -1.59504882e-003
      -3.42009403e-002 4.44707554e-003 9.01433602e-002 -1.67883374e-002
      -2.79668570e-002 4.80257235e-002 6.20328598e-002 3.37980432e-003
      -2.31315289e-002 -4.00435254e-002 2.97210738e-002 4.36612591e-002
      -3.89992408e-002 -6.47718310e-002 -3.06355171e-002 1.45136612e-002
      -4.18426506e-002 1.68949366e-003 -2.00943928e-002 3.72694582e-002
      2.57590041e-002 -4.66087833e-002 -6.50954172e-002 4.92140241e-002
      7.25599825e-002 -3.05985678e-002 -6.68896511e-002 -6.39695898e-002
      1.11854412e-002 -5.90130035e-003 -7.68132359e-002 -6.10504635e-002
      5.60958358e-003 1.51141975e-002 -6.43587559e-002 -2.28310470e-002
      -5.55352792e-002 2.90722158e-002 -3.38417925e-002 -9.88849998e-002
      -1.11867581e-002 1.97544508e-002 2.01168191e-002 -5.63513637e-002
      -1.72851421e-002 4.18744497e-002 1.95597373e-002 2.44371872e-002
      -2.87936125e-002 -4.28998545e-002 3.05607542e-002 4.97512482e-002
      -3.72673348e-002 -2.30784081e-002 -1.04766628e-002 2.33871508e-002
      4.40404890e-003 -4.20890488e-002 -6.41422495e-002 -1.27018814e-003
      2.70030256e-002 -5.25329933e-002 5.14417933e-003 -2.32180278e-003
      4.80696820e-002 6.15225639e-003 -9.81412530e-002 -4.22153659e-002
      -7.45483907e-003 1.31791541e-002 -4.50296775e-002 -5.25071248e-002
      -8.41988623e-003 5.85326999e-002 2.21798196e-002 -6.79051057e-002
      -3.11612505e-002 -2.16730963e-002 1.90140456e-002 -3.98087949e-002
      -6.78339377e-002 -4.48447242e-002 2.34358627e-002 7.72902444e-002
      2.79346686e-002 -1.67933069e-002 -8.71988535e-002 -3.34009901e-002
      -1.85228884e-002 -6.99669644e-002 -6.97408468e-002
      -5.87635732e-004 6.95199668e-002 1.51472418e-002 -4.51443205e-003
      1.81611739e-002 3.16943997e-003 -2.91310512e-002 -6.63334131e-002
      -5.97051717e-002 2.61098556e-002 3.64522114e-002 -3.89444781e-003
      -2.45585628e-002 -3.55216376e-002 -2.45161895e-002
      -9.01941862e-003 -3.76573130e-002 -5.38893938e-002 1.87630337e-002
      3.78793329e-002 2.74124811e-003 3.48009579e-002 -4.23601307e-002
      -1.57514606e-002 9.10580996e-003 -6.52043847e-003 -6.64536282e-002
      -1.04358956e-001 -6.80173635e-002 2.26372648e-002 6.16845712e-002
      4.59652655e-002 3.15070227e-002 5.30023091e-002 5.70121780e-002
      -1.74475810e-003 -5.62976897e-002 -1.46517903e-001
      -5.64703159e-002 -1.84914693e-002 -4.30954956e-002 5.44168615e-005
      1.36775216e-002 -9.74049326e-003 2.24826261e-002 3.67984809e-002
      1.59085579e-002 -1.65461805e-002 -6.48061652e-003 -2.33673081e-002
      5.10625765e-002 3.45441960e-002 2.85088103e-002 3.62597369e-002
      3.96905728e-002 -1.79279149e-002 -4.54932153e-002 4.08119000e-002
      -5.37453219e-003 9.17309523e-003 1.69392545e-002 -5.59437834e-003
      4.74246824e-003 2.30396837e-002 -1.86510161e-001 -9.34328064e-002
      8.11677128e-002 9.35780257e-003 2.63276789e-002 1.90022669e-003
      -2.47681942e-002 4.19708043e-002 1.25103250e-001 -7.57052302e-002
      -5.07049374e-002 -2.00790185e-002 -4.13583554e-002 9.93139390e-003
      -3.61451809e-003 -3.18407081e-002 1.87051576e-002 3.25815119e-002
      -7.48260170e-002 -8.90708193e-002 2.11032070e-002 -1.74757484e-002
      2.80773379e-002 -2.22457456e-003 -3.28065753e-002 7.60373250e-002
      1.02015249e-001 -1.28494510e-002 -2.57465243e-002 6.30326569e-002
      -8.86741653e-003 -2.93413475e-002 -6.90616667e-002
      -4.65099253e-002 1.00499261e-002 3.54997031e-002 -1.04730576e-001
      -2.20176950e-002 8.95585865e-002 2.75995992e-002 3.18569057e-002
      3.04899476e-002 -4.16236557e-003 2.36937683e-002 1.11466497e-002
      -4.61731479e-002 4.33455706e-002 -2.54050158e-002 -5.27849048e-002
      -8.91153701e-003 -5.44716530e-002 -9.27918851e-002 3.98962060e-003
      5.83403669e-002 -2.22813282e-002 -5.18587902e-002 -1.44734299e-002
      -3.32474075e-002 3.92297693e-002 -6.44593872e-003 -3.94659489e-002
      1.21434312e-002 6.90502077e-002 -2.84835324e-002 -1.68887191e-002
      1.26189487e-002 -3.42634507e-002 1.73033588e-002 8.55689868e-003
      -1.68848187e-002 1.98848806e-002 -7.53946416e-003 -9.88899395e-002
      -2.13402882e-002 -1.99896586e-003 -3.49047855e-002 1.23311486e-002
      4.97959042e-003 3.22891399e-003 3.11274994e-002 8.09205137e-003
      -9.71756577e-002 -3.47068794e-002 -4.53263894e-002
      -5.99129461e-002 2.32013967e-002 1.62099618e-002 -4.17521223e-002
      1.49391685e-002 4.04317342e-002 -1.87756922e-002 5.15876920e-004
      1.51670715e-002 -4.26920094e-002 1.94609500e-002 -2.59282347e-003
      -9.27097909e-003 2.15316750e-002 1.13783050e-002 -9.53298341e-003
      1.64684523e-002 1.03117684e-002 -7.49020800e-002 -1.91877298e-002
      -5.27520999e-002 -2.50611850e-003 3.09059466e-003 2.54288665e-003
      -1.03057690e-001 -6.57622218e-002 -6.58856258e-002
      -5.50723225e-002 -9.85871907e-003 -5.91911189e-002
      -3.58425565e-002 -3.52277011e-002 2.54306477e-002 -4.98042591e-002
      -5.69528565e-002 -1.63082257e-002 -5.51335849e-002 6.91773370e-003
      -1.70304235e-002 -4.03739919e-004 -2.74862088e-002
      -5.01254573e-003 -1.81173123e-002 -3.33899371e-002
      -1.46373566e-002 7.63088232e-003 5.63468272e-003 1.25021301e-002
      3.47182266e-002 -7.15300394e-003 6.20250590e-002 2.09962092e-002
      -2.90217418e-002 -2.60766391e-002 -6.20085821e-002
      -4.54337746e-002 -1.16374545e-001 -1.19157746e-001
      -1.00177608e-001 2.97378357e-002 -4.95077111e-002 -6.81096222e-003
      1.21429414e-002 -4.29629954e-003 6.75777718e-003 -1.03592418e-001
      -8.42684433e-002 -7.91616961e-002 2.36198604e-002 -3.16009857e-002
      1.30924303e-002 2.41603397e-004 5.78336930e-003 2.81891041e-002
      -2.73217801e-002 -1.66216269e-002 -3.29524726e-002 3.09440792e-002
      2.36307476e-002 2.75362562e-003 3.01353224e-002 3.12231239e-002
      4.17904183e-002 -1.60657812e-003 -3.29190269e-002 2.13498902e-003
      4.05979976e-002 -5.25515759e-003 1.97972134e-002 4.26352397e-002
      3.78633570e-003 3.31980549e-002 -7.49523640e-002 -3.38991471e-002
      -2.20291875e-002 3.41452695e-002 -8.49623606e-002 9.00527928e-003
      -5.21668373e-003 7.21616158e-003 4.58182395e-002 -4.63161133e-002
      -1.99239850e-002 -3.73413004e-002 3.29578994e-003 -9.26550925e-002
      -3.04354560e-002 6.40100166e-002 2.04157345e-002 2.35385709e-002
      -3.14507843e-003 -7.33108819e-003 6.00697473e-003 6.43496364e-002
      2.59620184e-003 1.20127676e-002 2.81618871e-002 1.11494903e-002
      2.77009159e-002 -7.45668262e-003 3.20127308e-002 -3.83248017e-003
      8.15549567e-002 1.13693690e-002 3.94051634e-002 2.12910119e-002
      -1.56597383e-002 -8.92814901e-003 -8.55752155e-002
      -5.56009077e-002 -3.31606232e-002 -7.73599092e-003
      -8.41757655e-002 -4.26095389e-002 3.73982377e-002 5.53565286e-002
      -8.29908997e-003 -8.07218850e-002 -7.83120170e-002
      -6.76862374e-002 2.16953289e-002 -3.19674052e-002 2.75395960e-002
      3.94657478e-002 -7.53876846e-003 1.69626847e-002 -4.10606675e-002
      7.02770613e-003 1.34524284e-002 5.36865741e-002 -1.03910649e-002
      6.51699528e-002 9.29015875e-002 4.38032933e-002 3.65723446e-002
      -9.16663092e-003 1.50088919e-002 -6.24485686e-003 6.04694225e-002
      3.81855220e-002 8.28782395e-002 3.51429470e-002 2.20144652e-002
      4.52140626e-003 -7.96140805e-002 -1.09304912e-001 -8.68919417e-002
      -1.06351739e-002 -3.08807120e-002 -2.66789440e-002 3.80610698e-003
      7.54344277e-004 1.25900684e-002 -6.17679507e-002 -6.50044680e-002
      -2.41778083e-002 -1.79523062e-002 -5.01483381e-002
      -3.47839668e-002 3.52752768e-002 2.78765429e-002 2.18334962e-002
      -1.54056214e-002 -3.26350029e-003 -1.28641760e-003 2.57237349e-002
      1.89591032e-002 1.07285017e-002 5.81640303e-002 3.97227667e-002
      5.09034321e-002 6.02038763e-002 5.33665493e-002 5.89860938e-002
      4.31772806e-002 3.11965961e-002 2.57510077e-002 -3.36973593e-002
      -8.50123316e-002 -8.08717310e-002 -1.08122699e-001
      -9.81476083e-002 -9.15951729e-002 -6.99594840e-002
      -8.65477324e-002 -3.90467122e-002 7.16093229e-003 -7.50990212e-002
      -9.10959616e-002 -8.57632905e-002 -7.84331188e-003
      -2.15609912e-002 -5.67717711e-003 -4.54896428e-002
      -7.02930475e-003 4.41972911e-002 -1.75565593e-002 1.16710169e-002
      2.39534471e-002 4.30520661e-002 -2.64355224e-002 -6.14964357e-003
      2.62055118e-002 6.53992221e-002 6.87421039e-002 1.40387807e-002
      3.87626141e-002 6.74539357e-002 6.46662191e-002 5.20244204e-002
      3.80384438e-002 8.08143169e-002 9.17079374e-002 -5.29349744e-002
      -1.24045499e-001 -1.40730754e-001 -1.52502045e-001
      -2.88788565e-002 -5.80520779e-002 -5.67562431e-002
      -3.79884169e-002 -3.76884975e-002 1.10788615e-002 -3.25904675e-002
      3.81845585e-003 -4.34432700e-002 1.75329521e-002 9.43379756e-003
      1.47970291e-002 8.27910900e-002 4.12977338e-002 -1.99418683e-002
      -7.10459575e-002 -3.05501595e-002 -3.66944931e-002
      -2.11750227e-003 2.89437100e-002 -4.71292958e-002 4.54887934e-003
      -2.37870794e-002 -1.83835567e-003 1.37137193e-002 4.21668179e-002
      4.16757986e-002 5.24545908e-002 -2.76210485e-003 -1.33082066e-002
      2.84659676e-002 -5.15238289e-003 -4.73489314e-002 -4.08239616e-003
      1.20348595e-002 -7.75998784e-003 5.47492802e-002 -1.75364632e-002
      -2.97094341e-002 4.44751270e-002 -2.73269173e-002 -7.32816197e-003
      7.38735870e-002 2.40338836e-002 -1.67088713e-002 2.86991354e-002
      -4.46061604e-002 -1.86170656e-002 7.10560083e-002 -9.08456556e-003
      -7.22477287e-002 3.97748640e-003 -1.22422641e-002 -1.69190727e-002
      5.20007461e-002 -7.40784705e-002 -5.94331399e-002 3.22640315e-002
      -4.37092781e-002 -4.68729511e-002 3.52558643e-002 -1.64350998e-002
      -1.19755324e-002 -6.55576726e-003 -3.58586870e-002
      -2.82786470e-002 7.99413472e-002 -2.89264340e-002 -7.38570839e-002
      2.37952434e-002 2.95886528e-002 -2.77550817e-002 -2.87001841e-002
      -5.52077368e-002 3.40728834e-002 2.77730189e-002 -6.59368858e-002
      -2.50793193e-002 1.86093245e-002 4.41830792e-003 -9.44915265e-002
      -4.57196385e-002 -7.38335550e-002 1.85356773e-002 -1.22091873e-002
      -6.39623776e-002 -9.29110274e-002 2.45627556e-002 -1.32135247e-004
      -3.77307162e-002 -3.48804593e-002 -7.77174458e-002 1.55785121e-002
      4.12677228e-002 -7.33457431e-002 -3.84675674e-002 4.10432601e-003
      1.06895110e-002 -1.22534767e-001 -3.72972600e-002 -6.64495677e-002
      1.15684373e-002 1.38854505e-002 -7.81361386e-002 -1.54052395e-002
      1.96276754e-002 1.41381007e-002 -7.77047724e-002 -1.72740817e-002
      -4.66115102e-002 -1.87111623e-003 -3.07990122e-003
      -5.71639091e-002 -5.46784289e-002 -1.38886226e-002 2.13988647e-002
      -3.98060940e-002 -7.29353074e-003 -6.34623915e-002
      -2.15487909e-002 -2.38097478e-002 -9.22039449e-002
      -4.08080742e-002 6.65499270e-003 2.47799717e-002 -8.20860714e-002
      -3.26957032e-002 -4.14351262e-002 -4.55537718e-003 2.75888182e-002
      -4.24534008e-002 -5.91606051e-002 -3.74995433e-002
      -1.73110683e-002 -7.15914518e-002 -3.46626015e-003
      -5.20889871e-002 -5.20324968e-002 -3.43587510e-002
      -7.29350597e-002 5.45992609e-003 2.21451446e-002 -1.76914793e-004
      -7.69421505e-003 -2.89763650e-003 -1.97857898e-002
      -2.69760787e-002 -3.11983544e-002 -5.19921221e-002
      -1.28974775e-002 2.20803339e-002 -6.62472146e-003 -1.48697598e-002
      2.20381673e-002 -1.20700067e-002 -4.89219325e-004 -9.89143271e-003
      -2.40406636e-002 -1.78507622e-002 -4.23480347e-002
      -2.52345093e-002 -4.72897626e-002 -3.29204183e-003
      -2.23093983e-002 -2.68612336e-002 -1.71792842e-002
      -3.64225283e-002 -5.61393946e-002 -1.15537150e-002
      -1.64749157e-002 -4.24473844e-002 1.02393804e-002 -2.79418677e-002
      -2.87290625e-002 -6.27490208e-002 -6.02549165e-002
      -1.71090185e-003 -1.09685287e-002 -9.49079823e-003
      -2.09490582e-002 2.04008222e-002 2.62778881e-003 -1.46931242e-002
      -3.37605700e-002 -4.65484709e-002 -7.86479376e-003
      -2.31709443e-002 4.05508932e-003 -3.47303879e-003 2.68561486e-002
      1.45825790e-002 -2.57127860e-004 -1.01907533e-002 -4.16728780e-002
      -2.71267630e-002 5.32893725e-002 -2.35261885e-003 -1.35776708e-002
      2.48690229e-002 -1.54783558e-002 -1.07779391e-002 -5.52254394e-002
      -4.88948934e-002 2.19655633e-002 8.25865380e-003 2.49652211e-002
      -1.56681165e-002 1.77625455e-002 8.06898624e-003 3.34579349e-002
      2.47438196e-002 1.96283646e-002 -2.09795721e-002 -1.17208309e-001
      -4.39714976e-002 -5.57039976e-002 -5.18141575e-002
      -1.39031159e-002 1.62005816e-002 -2.42704619e-002 -7.82174338e-003
      3.83807300e-003 -7.16918409e-002 2.43305042e-002 -5.84678771e-003
      -3.06018516e-002 2.65717097e-002 7.38218278e-002 2.65876446e-002
      3.07280049e-002 -5.21786325e-003 -6.33729324e-002 -8.56522911e-006
      -6.84266165e-002 -6.61421344e-002 -7.30648544e-003 4.31237817e-002
      8.40305630e-003 3.72117721e-002 7.91485421e-003 -2.09595580e-002
      4.66560051e-002 -1.73917320e-002 -4.79967929e-002 -1.48328452e-003
      9.61459726e-002 5.07424250e-002 4.09720019e-002 -2.13201139e-002
      -7.00751618e-002 3.20790708e-002 -4.90745604e-002 -8.20620805e-002
      -5.09431697e-002 6.72276467e-002 2.84921434e-002 -3.34715061e-002
      5.88943996e-003 -3.30790691e-002 4.86804880e-002 -7.68062659e-003
      -2.73544136e-002 -2.29116660e-002 9.56039503e-002 3.69356084e-003
      -1.19652757e-002 -1.27546617e-003 -3.33564430e-002 4.54562753e-002
      -2.69280057e-002 -6.27943575e-002 -6.89374804e-002 7.98707828e-002
      7.34356567e-002 3.82007994e-002 1.77364331e-002 -1.26740653e-002
      7.58281201e-002 2.83211060e-002 -2.13012788e-002 -2.10054349e-002
      9.48200375e-002 7.78453574e-002 4.45304848e-002 -1.26113724e-002
      -6.91841617e-002 3.29692522e-003 -3.26719172e-002 -6.58703074e-002
      -5.23963161e-002 5.21617383e-002 -1.07991165e-002 -8.09293240e-003
      -8.71772692e-003 -2.81242207e-002 2.46294867e-002 -4.65520006e-003
      -3.21961343e-002 -1.03183128e-002 4.87083942e-002 -1.57629082e-004
      4.45645899e-002 -6.02994822e-002 -6.76721260e-002 1.99624617e-002
      2.69973222e-002 -1.55225899e-002 -4.56114076e-002 6.14540428e-002
      3.21890190e-002 2.01022602e-003 -2.78465040e-002 -4.04610671e-002
      5.93828298e-002 5.96791618e-002 -2.36631017e-002 -9.83878877e-003
      8.22525546e-002 3.50660235e-002 4.55016345e-002 -5.18382937e-002
      -7.01945052e-002 -1.86679047e-003 -4.44921032e-002
      -1.03294635e-002 -6.99757636e-002 -9.66185052e-003
      -3.41540128e-002 -1.71857215e-002 -2.31708493e-002
      -5.64477500e-003 3.16445529e-002 1.23293027e-002 8.11464339e-002
      1.84053071e-002 4.10039127e-002 9.58824623e-003 -1.48066208e-002
      -2.89732423e-002 -7.67505243e-002 5.51818684e-002 1.42872799e-002
      -2.55984552e-002 -6.13207594e-002 1.67279579e-002 -3.78403105e-002
      -1.19029153e-002 1.77427270e-002 -2.84212716e-002 5.86829856e-002
      -8.28830712e-003 3.94256338e-002 2.24354230e-002 4.39536758e-002
      -1.18680559e-002 -3.20228213e-003 -1.23419100e-002
      -3.73137072e-002 2.03633476e-002 -2.09218655e-002 3.44169512e-002
      -1.51254900e-003 -8.22290219e-003 -1.09036602e-002
      -5.06067947e-002 2.77709886e-002 -1.24390693e-002 2.68283021e-002
      9.23271663e-003 1.18229697e-002 4.29490872e-004 -1.06155593e-003
      -4.34014294e-003 1.02591394e-002 -6.15452090e-003 -5.56661971e-002
      7.43554393e-003 -5.95670119e-002 -7.80848693e-003 -3.74819264e-002
      -2.17321306e-003 -6.88986247e-003 1.82918906e-002 5.28884679e-003
      -1.59301031e-002 4.01565954e-002 -1.85325891e-002 1.83613449e-002
      4.60047089e-003 5.07194772e-002 3.83233465e-002 1.94307566e-002
      -1.18562467e-002 -9.77384206e-003 1.89458821e-002 -2.07638983e-002
      -2.58914307e-002 -4.14450914e-002 1.28337662e-004 4.94148443e-003
      -2.20382493e-002 -3.49941961e-002 -1.36679737e-002 3.51656787e-002
      -1.24068595e-002 1.55776395e-002 -4.58702296e-002 5.20111695e-002
      1.89374387e-002 1.49245439e-002 -7.90854730e-003 3.48649663e-003
      5.89265861e-002 -6.74681691e-003 2.30324734e-002 2.65017571e-003
      6.30441085e-002 2.85801627e-002 2.15539020e-002 -9.72195528e-003
      1.03473747e-002 6.69981837e-002 -1.46352947e-002 2.31120270e-003
      3.22314873e-002 1.06955200e-001 4.53628227e-002 1.64435543e-002
      -7.73800630e-003 -4.28656489e-002 1.54763190e-002 -3.86001542e-002
      -7.34220678e-003 -4.16239202e-002 4.15357649e-002 2.64294166e-003
      1.39486638e-003 3.47706452e-002 -3.08929142e-002 1.19285891e-002
      -1.46538485e-002 4.57748733e-002 -2.44208779e-002 1.82393957e-002
      7.09730852e-003 4.09137309e-002 -7.42681418e-003 -1.35530541e-002
      6.35798797e-002 -9.17708408e-003 -3.25769186e-002 4.35282104e-003
      6.99312165e-002 2.79339813e-002 -5.20699751e-003 1.01919780e-002
      -4.13396023e-002 3.82898338e-002 3.69221680e-002 4.91166376e-002
      2.63561364e-002 5.89928031e-002 5.89898378e-002 7.24100973e-003
      -2.90245712e-002 -1.11567816e-002 -5.48482221e-003
      -4.93758023e-002 -8.65097065e-003 -6.16846792e-002
      -4.58241906e-003 -1.75118782e-002 -1.77258812e-002 1.77720580e-002
      2.38673538e-002 3.62246223e-002 2.50885654e-002 4.90195453e-002
      5.35025354e-003 4.18848433e-002 5.41019402e-002 2.82807350e-002
      -6.90473430e-003 -4.92215529e-002 1.41944038e-002 -6.91770983e-004
      -4.07365197e-003 -5.72552308e-002 -3.36339908e-005 1.28071988e-002
      1.68839116e-002 4.33302075e-002 5.21257371e-002 9.72360969e-002
      4.16285582e-002 6.63555637e-002 2.97038537e-002 5.51920272e-002
      5.81406020e-002 4.60352153e-002 -1.95678463e-003 -4.58725095e-002
      -3.71415378e-003 -5.19433618e-002 -4.13761623e-002
      -8.58487263e-002 -4.06983867e-002 -7.63021456e-003 2.15565227e-002
      1.48653816e-002 -3.02042328e-002 2.41449606e-002 2.68174037e-002
      -8.23507365e-003 -1.61496236e-003 -3.30447294e-002
      -2.07589604e-002 3.55329327e-002 5.28162392e-003 -2.00415179e-002
      3.73412035e-002 -2.42155585e-002 1.63521115e-002 -4.32597883e-002
      -1.48731759e-002 5.57286572e-003 2.43742745e-002 2.16143318e-002
      -3.43425833e-002 4.48459499e-002 3.65861990e-002 2.87062973e-002
      3.62583809e-002 1.53343026e-002 7.35285319e-003 3.96696217e-002
      1.28844357e-003 -3.56838852e-002 1.01827532e-002 1.59186982e-002
      -1.70475580e-002 -7.54935388e-003 -5.36165945e-002
      -5.63318469e-002 -5.77151636e-003 2.17852537e-002 7.22506270e-002
      2.70313360e-002 1.63241886e-002 -1.98308676e-002 -3.12916599e-002
      -1.04315998e-002 1.40091553e-002 1.86856277e-002 -2.21748799e-002
      -7.46137798e-002 -1.89087279e-002 -4.93705366e-003
      -2.97247954e-002 -3.28399427e-002 -7.62898177e-002
      -6.80972040e-002 1.03741633e-002 -5.82305761e-003 1.81604624e-002
      -1.76262818e-002 -1.96063630e-002 -2.69303210e-002
      -3.56724001e-002 -9.67657659e-003 1.36360861e-002 1.44330570e-002
      4.92439047e-003 7.00257272e-002 -1.04334904e-003 -1.24422060e-002
      2.04136185e-002 -2.93386523e-002 -6.82441285e-004 6.54205829e-002
      1.45202233e-002 -2.70428043e-002 3.13275047e-002 -3.67459767e-002
      -1.09711895e-002 8.13631155e-003 1.14884349e-002 1.52923157e-002
      1.00702450e-001 -4.52945521e-003 -4.09317352e-002 2.57366542e-002
      4.73522022e-003 -2.55133789e-002 4.21444736e-002 -2.70125363e-002
      1.21619534e-002 4.91689891e-002 -3.77208143e-002 -6.75549284e-002
      6.29440555e-003 -3.42327822e-003 1.09755499e-002 2.84112040e-002
      -1.07673956e-002 1.67935267e-002 6.79026991e-002 -5.28833717e-002</_></support_vectors>
  <decision_functions>
    <_>
      <sv_count>1</sv_count>
      <rho>-5.6675247179278490e+000</rho>
      <alpha>
        1.</alpha>
      <index>
        0</index></_></decision_functions></my_svm>
</opencv_storage>
